<?xml version="1.0" encoding="UTF-8"?>
<BIF VERSION="0.3"  xmlns="http://www.cs.ubc.ca/labs/lci/fopi/ve/XMLBIFv0_3"
	xmlns:xsi="http://www.w3.org/2001/XMLSchema-instance"
	xsi:schemaLocation="http://www.cs.ubc.ca/labs/lci/fopi/ve/XMLBIFv0_3 http://www.cs.ubc.ca/labs/lci/fopi/ve/XMLBIFv0_3/XMLBIFv0_3.xsd">
<NETWORK>
<NAME>Nuclear Power Station</NAME>
<PROPERTY>short = </PROPERTY>
<PROPERTY>detailed = </PROPERTY>

<VARIABLE TYPE="nature">
	<NAME>WaterLeak</NAME>
	<OUTCOME>T</OUTCOME>
	<OUTCOME>F</OUTCOME>
	<PROPERTY>position = (7762.69384765625, 5163.67333984375)</PROPERTY>
</VARIABLE>

<VARIABLE TYPE="nature">
	<NAME>WaterLeakWarning</NAME>
	<OUTCOME>T</OUTCOME>
	<OUTCOME>F</OUTCOME>
	<PROPERTY>position = (7606.779296875, 5171.63330078125)</PROPERTY>
</VARIABLE>

<VARIABLE TYPE="nature">
	<NAME>IcyWeather</NAME>
	<OUTCOME>T</OUTCOME>
	<OUTCOME>F</OUTCOME>
	<PROPERTY>position = (7700.69384765625, 5056.4716796875)</PROPERTY>
</VARIABLE>

<VARIABLE TYPE="nature">
	<NAME>PumpFailure</NAME>
	<OUTCOME>T</OUTCOME>
	<OUTCOME>F</OUTCOME>
	<PROPERTY>position = (7232.99951171875, 5125.06005859375)</PROPERTY>
</VARIABLE>

<VARIABLE TYPE="nature">
	<NAME>PumpFailureWarning</NAME>
	<OUTCOME>T</OUTCOME>
	<OUTCOME>F</OUTCOME>
	<PROPERTY>position = (7359.220703125, 5176.0205078125)</PROPERTY>
</VARIABLE>

<VARIABLE TYPE="nature">
	<NAME>Meltdown</NAME>
	<OUTCOME>T</OUTCOME>
	<OUTCOME>F</OUTCOME>
	<PROPERTY>position = (7388.05517578125, 5599.5283203125)</PROPERTY>
</VARIABLE>

<VARIABLE TYPE="nature">
	<NAME>Battery</NAME>
	<OUTCOME>T</OUTCOME>
	<OUTCOME>F</OUTCOME>
	<PROPERTY>position = (7866.0, 5184.0)</PROPERTY>
</VARIABLE>

<VARIABLE TYPE="nature">
	<NAME>Radio</NAME>
	<OUTCOME>T</OUTCOME>
	<OUTCOME>F</OUTCOME>
	<PROPERTY>position = (7990.0, 5220.0)</PROPERTY>
</VARIABLE>

<VARIABLE TYPE="nature">
	<NAME>Ignition</NAME>
	<OUTCOME>T</OUTCOME>
	<OUTCOME>F</OUTCOME>
	<PROPERTY>position = (7907.0, 5281.0)</PROPERTY>
</VARIABLE>

<VARIABLE TYPE="nature">
	<NAME>Starts</NAME>
	<OUTCOME>T</OUTCOME>
	<OUTCOME>F</OUTCOME>
	<PROPERTY>position = (7903.0, 5366.0)</PROPERTY>
</VARIABLE>

<VARIABLE TYPE="nature">
	<NAME>Gas</NAME>
	<OUTCOME>T</OUTCOME>
	<OUTCOME>F</OUTCOME>
	<PROPERTY>position = (8036.0, 5388.0)</PROPERTY>
</VARIABLE>

<VARIABLE TYPE="nature">
	<NAME>Moves</NAME>
	<OUTCOME>T</OUTCOME>
	<OUTCOME>F</OUTCOME>
	<PROPERTY>position = (7832.0, 5459.0)</PROPERTY>
</VARIABLE>

<VARIABLE TYPE="nature">
	<NAME>Survives</NAME>
	<OUTCOME>T</OUTCOME>
	<OUTCOME>F</OUTCOME>
	<PROPERTY>position = (7588.0, 5728.0)</PROPERTY>
</VARIABLE>

<VARIABLE TYPE="nature">
	<NAME>Bicycle_works</NAME>
	<OUTCOME>T</OUTCOME>
	<OUTCOME>F</OUTCOME>
	<PROPERTY>position = (7903.0, 5641.0)</PROPERTY>
</VARIABLE>

<VARIABLE TYPE="nature">
	<NAME>Sleep</NAME>
	<OUTCOME>T</OUTCOME>
	<OUTCOME>F</OUTCOME>
	<PROPERTY>position = (7320.0, 5292.0)</PROPERTY>
</VARIABLE>

<VARIABLE TYPE="nature">
	<NAME>Incompetent</NAME>
	<OUTCOME>T</OUTCOME>
	<OUTCOME>F</OUTCOME>
	<PROPERTY>position = (7453.0, 5253.0)</PROPERTY>
</VARIABLE>

<VARIABLE TYPE="nature">
	<NAME>Watching TV</NAME>
	<OUTCOME>T</OUTCOME>
	<OUTCOME>F</OUTCOME>
	<PROPERTY>position = (7572.0, 5292.0)</PROPERTY>
</VARIABLE>

<VARIABLE TYPE="nature">
	<NAME>Reacts_Accordingly</NAME>
	<OUTCOME>T</OUTCOME>
	<OUTCOME>F</OUTCOME>
	<PROPERTY>position = (7442.0, 5366.0)</PROPERTY>
</VARIABLE>

<DEFINITION>
	<FOR>WaterLeak</FOR>
	<GIVEN>IcyWeather</GIVEN>
	<TABLE>0.2 0.8 0.1 0.9</TABLE>
</DEFINITION>

<DEFINITION>
	<FOR>WaterLeakWarning</FOR>
	<GIVEN>WaterLeak</GIVEN>
	<TABLE>0.9 0.1 0.05 0.95</TABLE>
</DEFINITION>

<DEFINITION>
	<FOR>IcyWeather</FOR>
	<TABLE>0.05 0.95</TABLE>
</DEFINITION>

<DEFINITION>
	<FOR>PumpFailure</FOR>
	<TABLE>0.1 0.9</TABLE>
</DEFINITION>

<DEFINITION>
	<FOR>PumpFailureWarning</FOR>
	<GIVEN>PumpFailure</GIVEN>
	<TABLE>0.9 0.1 0.05 0.95</TABLE>
</DEFINITION>

<DEFINITION>
	<FOR>Meltdown</FOR>
	<GIVEN>WaterLeak</GIVEN>
	<GIVEN>PumpFailure</GIVEN>
	<GIVEN>Reacts_Accordingly</GIVEN>
	<TABLE>0.1 0.9 0.3 0.7 0.05 0.95 0.15 0.85 0.1 0.9 0.2 0.8 0.001 0.999 0.002 0.998</TABLE>
</DEFINITION>

<DEFINITION>
	<FOR>Battery</FOR>
	<GIVEN>IcyWeather</GIVEN>
	<TABLE>0.8 0.2 0.95 0.05</TABLE>
</DEFINITION>

<DEFINITION>
	<FOR>Radio</FOR>
	<GIVEN>Battery</GIVEN>
	<TABLE>0.95 0.05 0.0 1.0</TABLE>
</DEFINITION>

<DEFINITION>
	<FOR>Ignition</FOR>
	<GIVEN>Battery</GIVEN>
	<TABLE>0.95 0.05 0.0 1.0</TABLE>
</DEFINITION>

<DEFINITION>
	<FOR>Starts</FOR>
	<GIVEN>Ignition</GIVEN>
	<GIVEN>Gas</GIVEN>
	<TABLE>0.95 0.05 0.0 1.0 0.0 1.0 0.0 1.0</TABLE>
</DEFINITION>

<DEFINITION>
	<FOR>Gas</FOR>
	<TABLE>0.95 0.05</TABLE>
</DEFINITION>

<DEFINITION>
	<FOR>Moves</FOR>
	<GIVEN>Starts</GIVEN>
	<TABLE>0.95 0.05 0.0 1.0</TABLE>
</DEFINITION>

<DEFINITION>
	<FOR>Survives</FOR>
	<GIVEN>Meltdown</GIVEN>
	<GIVEN>Moves</GIVEN>
	<GIVEN>Bicycle_works</GIVEN>
	<TABLE>0.9 0.1 0.8 0.2 0.6 0.4 0.0 1.0 1.0 0.0 1.0 0.0 1.0 0.0 1.0 0.0</TABLE>
</DEFINITION>

<DEFINITION>
	<FOR>Bicycle_works</FOR>
	<TABLE>0.9 0.1</TABLE>
</DEFINITION>

<DEFINITION>
	<FOR>Sleep</FOR>
	<TABLE>0.5 0.5</TABLE>
</DEFINITION>

<DEFINITION>
	<FOR>Incompetent</FOR>
	<TABLE>0.7 0.3</TABLE>
</DEFINITION>

<DEFINITION>
	<FOR>Watching TV</FOR>
	<TABLE>0.3 0.7</TABLE>
</DEFINITION>

<DEFINITION>
	<FOR>Reacts_Accordingly</FOR>
	<GIVEN>WaterLeakWarning</GIVEN>
	<GIVEN>PumpFailureWarning</GIVEN>
	<GIVEN>Sleep</GIVEN>
	<GIVEN>Incompetent</GIVEN>
	<GIVEN>Watching TV</GIVEN>
	<TABLE>0.01 0.99 0.05 0.95 0.15 0.85 0.25 0.75 0.1 0.9 0.2 0.8 0.3 0.7 0.5 0.5 0.05 0.95 0.1 0.9 0.2 0.8 0.35 0.65 0.15 0.85 0.2 0.8 0.4 0.6 0.45 0.55 0.01 0.99 0.2 0.8 0.013 0.987 0.35 0.65 0.05 0.95 0.25 0.75 0.3 0.7 0.6 0.4 1.0 0.0 0.7 0.3 0.9 0.1 1.0 0.0 0.6 0.4 0.55 0.45 0.85 0.15 0.75 0.25</TABLE>
</DEFINITION>
</NETWORK>
</BIF>
